<?xml version="1.0"?>
<opencv_storage>
<cascade>
  <stageType>BOOST</stageType>
  <featureType>HAAR</featureType>
  <height>28</height>
  <width>24</width>
  <stageParams>
    <boostType>GAB</boostType>
    <minHitRate>9.9500000476837158e-01</minHitRate>
    <maxFalseAlarm>5.0000000000000000e-01</maxFalseAlarm>
    <weightTrimRate>9.4999998807907104e-01</weightTrimRate>
    <maxDepth>1</maxDepth>
    <maxWeakCount>100</maxWeakCount></stageParams>
  <featureParams>
    <maxCatCount>0</maxCatCount>
    <featSize>1</featSize>
    <mode>BASIC</mode></featureParams>
  <stageNum>7</stageNum>
  <stages>
    <!-- stage 0 -->
    <_>
      <maxWeakCount>2</maxWeakCount>
      <stageThreshold>-4.2880922555923462e-01</stageThreshold>
      <weakClassifiers>
        <_>
          <internalNodes>
            0 -1 4 -1.1722664535045624e-01</internalNodes>
          <leafValues>
            5.6842106580734253e-01 -9.6717947721481323e-01</leafValues></_>
        <_>
          <internalNodes>
            0 -1 12 -5.6079886853694916e-02</internalNodes>
          <leafValues>
            6.3075089454650879e-01 -9.9723029136657715e-01</leafValues></_></weakClassifiers></_>
    <!-- stage 1 -->
    <_>
      <maxWeakCount>4</maxWeakCount>
      <stageThreshold>-1.9270968437194824e+00</stageThreshold>
      <weakClassifiers>
        <_>
          <internalNodes>
            0 -1 21 7.7686071395874023e-02</internalNodes>
          <leafValues>
            -9.0173411369323730e-01 7.9527556896209717e-01</leafValues></_>
        <_>
          <internalNodes>
            0 -1 8 -2.2170327603816986e-02</internalNodes>
          <leafValues>
            5.9471833705902100e-01 -8.9222913980484009e-01</leafValues></_>
        <_>
          <internalNodes>
            0 -1 19 5.2421824075281620e-03</internalNodes>
          <leafValues>
            -6.6353410482406616e-01 8.2319796085357666e-01</leafValues></_>
        <_>
          <internalNodes>
            0 -1 26 -1.3385586440563202e-02</internalNodes>
          <leafValues>
            5.3040051460266113e-01 -9.2191201448440552e-01</leafValues></_></weakClassifiers></_>
    <!-- stage 2 -->
    <_>
      <maxWeakCount>4</maxWeakCount>
      <stageThreshold>-2.0663757324218750e+00</stageThreshold>
      <weakClassifiers>
        <_>
          <internalNodes>
            0 -1 25 3.3316753804683685e-02</internalNodes>
          <leafValues>
            -8.9534884691238403e-01 6.6917294263839722e-01</leafValues></_>
        <_>
          <internalNodes>
            0 -1 17 -5.8652618899941444e-03</internalNodes>
          <leafValues>
            7.0179724693298340e-01 -7.7211654186248779e-01</leafValues></_>
        <_>
          <internalNodes>
            0 -1 23 9.5718391239643097e-03</internalNodes>
          <leafValues>
            -9.1198015213012695e-01 4.6112811565399170e-01</leafValues></_>
        <_>
          <internalNodes>
            0 -1 15 -7.3726014234125614e-03</internalNodes>
          <leafValues>
            5.1306980848312378e-01 -8.0091243982315063e-01</leafValues></_></weakClassifiers></_>
    <!-- stage 3 -->
    <_>
      <maxWeakCount>6</maxWeakCount>
      <stageThreshold>-2.2550399303436279e+00</stageThreshold>
      <weakClassifiers>
        <_>
          <internalNodes>
            0 -1 2 -3.7804104387760162e-02</internalNodes>
          <leafValues>
            7.6562500000000000e-01 -8.9971071481704712e-01</leafValues></_>
        <_>
          <internalNodes>
            0 -1 13 -8.0483620986342430e-03</internalNodes>
          <leafValues>
            5.3838938474655151e-01 -8.0003148317337036e-01</leafValues></_>
        <_>
          <internalNodes>
            0 -1 24 -2.4717748165130615e-02</internalNodes>
          <leafValues>
            5.3580969572067261e-01 -7.8996741771697998e-01</leafValues></_>
        <_>
          <internalNodes>
            0 -1 3 -4.8215374350547791e-02</internalNodes>
          <leafValues>
            3.5040798783302307e-01 -8.8744348287582397e-01</leafValues></_>
        <_>
          <internalNodes>
            0 -1 28 8.1316456198692322e-03</internalNodes>
          <leafValues>
            -5.3327196836471558e-01 7.6269233226776123e-01</leafValues></_>
        <_>
          <internalNodes>
            0 -1 14 -1.2511930253822356e-04</internalNodes>
          <leafValues>
            -1. 4.1753363609313965e-01</leafValues></_></weakClassifiers></_>
    <!-- stage 4 -->
    <_>
      <maxWeakCount>4</maxWeakCount>
      <stageThreshold>-2.1678113937377930e+00</stageThreshold>
      <weakClassifiers>
        <_>
          <internalNodes>
            0 -1 1 -1.2119580805301666e-01</internalNodes>
          <leafValues>
            8.0869567394256592e-01 -8.8380950689315796e-01</leafValues></_>
        <_>
          <internalNodes>
            0 -1 7 -4.3103508651256561e-02</internalNodes>
          <leafValues>
            4.1073238849639893e-01 -8.4923183917999268e-01</leafValues></_>
        <_>
          <internalNodes>
            0 -1 27 -1.3634709641337395e-02</internalNodes>
          <leafValues>
            5.0976717472076416e-01 -7.7408790588378906e-01</leafValues></_>
        <_>
          <internalNodes>
            0 -1 10 3.7953157443553209e-03</internalNodes>
          <leafValues>
            3.3931776881217957e-01 -9.7867625951766968e-01</leafValues></_></weakClassifiers></_>
    <!-- stage 5 -->
    <_>
      <maxWeakCount>6</maxWeakCount>
      <stageThreshold>-2.3359038829803467e+00</stageThreshold>
      <weakClassifiers>
        <_>
          <internalNodes>
            0 -1 0 -8.9134752750396729e-02</internalNodes>
          <leafValues>
            7.7981650829315186e-01 -8.7121212482452393e-01</leafValues></_>
        <_>
          <internalNodes>
            0 -1 4 -1.2915688753128052e-01</internalNodes>
          <leafValues>
            5.3239518404006958e-01 -7.9599356651306152e-01</leafValues></_>
        <_>
          <internalNodes>
            0 -1 22 8.3674909546971321e-03</internalNodes>
          <leafValues>
            -6.4740473031997681e-01 6.7619729042053223e-01</leafValues></_>
        <_>
          <internalNodes>
            0 -1 16 -2.6373481377959251e-03</internalNodes>
          <leafValues>
            -8.9025115966796875e-01 4.1429135203361511e-01</leafValues></_>
        <_>
          <internalNodes>
            0 -1 18 7.3153413832187653e-03</internalNodes>
          <leafValues>
            -8.6986100673675537e-01 4.0491074323654175e-01</leafValues></_>
        <_>
          <internalNodes>
            0 -1 11 -9.0697288513183594e-02</internalNodes>
          <leafValues>
            4.3427625298500061e-01 -8.6308497190475464e-01</leafValues></_></weakClassifiers></_>
    <!-- stage 6 -->
    <_>
      <maxWeakCount>4</maxWeakCount>
      <stageThreshold>-2.1384384632110596e+00</stageThreshold>
      <weakClassifiers>
        <_>
          <internalNodes>
            0 -1 5 -9.4622090458869934e-02</internalNodes>
          <leafValues>
            7.8761059045791626e-01 -8.7832701206207275e-01</leafValues></_>
        <_>
          <internalNodes>
            0 -1 20 -3.8641951978206635e-03</internalNodes>
          <leafValues>
            6.5445107221603394e-01 -7.7746832370758057e-01</leafValues></_>
        <_>
          <internalNodes>
            0 -1 9 -4.0144948288798332e-03</internalNodes>
          <leafValues>
            4.4917571544647217e-01 -8.4774124622344971e-01</leafValues></_>
        <_>
          <internalNodes>
            0 -1 6 -6.1487480707000941e-05</internalNodes>
          <leafValues>
            -9.8079574108123779e-01 3.6509802937507629e-01</leafValues></_></weakClassifiers></_></stages>
  <features>
    <_>
      <rects>
        <_>
          0 2 12 5 -1.</_>
        <_>
          6 2 6 5 2.</_></rects>
      <tilted>0</tilted></_>
    <_>
      <rects>
        <_>
          0 2 24 3 -1.</_>
        <_>
          8 2 8 3 3.</_></rects>
      <tilted>0</tilted></_>
    <_>
      <rects>
        <_>
          0 3 24 1 -1.</_>
        <_>
          8 3 8 1 3.</_></rects>
      <tilted>0</tilted></_>
    <_>
      <rects>
        <_>
          2 14 20 12 -1.</_>
        <_>
          2 18 20 4 3.</_></rects>
      <tilted>0</tilted></_>
    <_>
      <rects>
        <_>
          3 1 18 12 -1.</_>
        <_>
          3 5 18 4 3.</_></rects>
      <tilted>0</tilted></_>
    <_>
      <rects>
        <_>
          3 2 21 3 -1.</_>
        <_>
          10 2 7 3 3.</_></rects>
      <tilted>0</tilted></_>
    <_>
      <rects>
        <_>
          3 12 18 3 -1.</_>
        <_>
          12 12 9 3 2.</_></rects>
      <tilted>0</tilted></_>
    <_>
      <rects>
        <_>
          4 1 7 12 -1.</_>
        <_>
          4 5 7 4 3.</_></rects>
      <tilted>0</tilted></_>
    <_>
      <rects>
        <_>
          4 2 4 23 -1.</_>
        <_>
          6 2 2 23 2.</_></rects>
      <tilted>0</tilted></_>
    <_>
      <rects>
        <_>
          4 10 6 4 -1.</_>
        <_>
          6 10 2 4 3.</_></rects>
      <tilted>0</tilted></_>
    <_>
      <rects>
        <_>
          4 13 12 3 -1.</_>
        <_>
          10 13 6 3 2.</_></rects>
      <tilted>0</tilted></_>
    <_>
      <rects>
        <_>
          4 15 16 12 -1.</_>
        <_>
          4 19 16 4 3.</_></rects>
      <tilted>0</tilted></_>
    <_>
      <rects>
        <_>
          5 16 14 12 -1.</_>
        <_>
          5 20 14 4 3.</_></rects>
      <tilted>0</tilted></_>
    <_>
      <rects>
        <_>
          6 9 3 8 -1.</_>
        <_>
          7 9 1 8 3.</_></rects>
      <tilted>0</tilted></_>
    <_>
      <rects>
        <_>
          8 4 6 16 -1.</_>
        <_>
          8 4 3 8 2.</_>
        <_>
          11 12 3 8 2.</_></rects>
      <tilted>0</tilted></_>
    <_>
      <rects>
        <_>
          8 22 9 6 -1.</_>
        <_>
          8 24 9 2 3.</_></rects>
      <tilted>0</tilted></_>
    <_>
      <rects>
        <_>
          9 4 9 16 -1.</_>
        <_>
          12 4 3 16 3.</_></rects>
      <tilted>0</tilted></_>
    <_>
      <rects>
        <_>
          9 14 3 4 -1.</_>
        <_>
          10 14 1 4 3.</_></rects>
      <tilted>0</tilted></_>
    <_>
      <rects>
        <_>
          10 5 3 15 -1.</_>
        <_>
          10 10 3 5 3.</_></rects>
      <tilted>0</tilted></_>
    <_>
      <rects>
        <_>
          11 12 3 3 -1.</_>
        <_>
          12 12 1 3 3.</_></rects>
      <tilted>0</tilted></_>
    <_>
      <rects>
        <_>
          12 12 2 5 -1.</_>
        <_>
          13 12 1 5 2.</_></rects>
      <tilted>0</tilted></_>
    <_>
      <rects>
        <_>
          14 2 10 6 -1.</_>
        <_>
          19 2 5 6 2.</_></rects>
      <tilted>0</tilted></_>
    <_>
      <rects>
        <_>
          14 10 3 7 -1.</_>
        <_>
          15 10 1 7 3.</_></rects>
      <tilted>0</tilted></_>
    <_>
      <rects>
        <_>
          14 16 8 8 -1.</_>
        <_>
          14 16 4 4 2.</_>
        <_>
          18 20 4 4 2.</_></rects>
      <tilted>0</tilted></_>
    <_>
      <rects>
        <_>
          15 5 8 12 -1.</_>
        <_>
          15 5 4 6 2.</_>
        <_>
          19 11 4 6 2.</_></rects>
      <tilted>0</tilted></_>
    <_>
      <rects>
        <_>
          16 5 8 3 -1.</_>
        <_>
          20 5 4 3 2.</_></rects>
      <tilted>0</tilted></_>
    <_>
      <rects>
        <_>
          17 12 4 15 -1.</_>
        <_>
          17 17 4 5 3.</_></rects>
      <tilted>0</tilted></_>
    <_>
      <rects>
        <_>
          17 15 6 7 -1.</_>
        <_>
          19 15 2 7 3.</_></rects>
      <tilted>0</tilted></_>
    <_>
      <rects>
        <_>
          22 9 2 7 -1.</_>
        <_>
          23 9 1 7 2.</_></rects>
      <tilted>0</tilted></_></features></cascade>
</opencv_storage>
